## MART
## No. of trees = 1000
## No. of leaves = 10
## No. of threshold candidates = 256
## Learning rate = 0.1
## Stop early = 100

<ensemble>
	<tree id="1" weight="0.1">
		<split>
			<feature> 34 </feature>
			<threshold> 42.307903 </threshold>
			<split pos="left">
				<feature> 34 </feature>
				<threshold> 22.636923 </threshold>
				<split pos="left">
					<feature> 37 </feature>
					<threshold> 0.0 </threshold>
					<split pos="left">
						<feature> 34 </feature>
						<threshold> 13.269799 </threshold>
						<split pos="left">
							<output> 0.010559020563960075 </output>
						</split>
						<split pos="right">
							<feature> 38 </feature>
							<threshold> 0.0 </threshold>
							<split pos="left">
								<output> 0.02782612480223179 </output>
							</split>
							<split pos="right">
								<output> 0.05012299120426178 </output>
							</split>
						</split>
					</split>
					<split pos="right">
						<output> 0.08364475518465042 </output>
					</split>
				</split>
				<split pos="right">
					<feature> 37 </feature>
					<threshold> 0.015625 </threshold>
					<split pos="left">
						<feature> 28 </feature>
						<threshold> 449.3203 </threshold>
						<split pos="left">
							<output> 0.06334745138883591 </output>
						</split>
						<split pos="right">
							<output> 0.12300680577754974 </output>
						</split>
					</split>
					<split pos="right">
						<output> 0.20048679411411285 </output>
					</split>
				</split>
			</split>
			<split pos="right">
				<feature> 34 </feature>
				<threshold> 69.47261 </threshold>
				<split pos="left">
					<feature> 37 </feature>
					<threshold> 0.015625 </threshold>
					<split pos="left">
						<output> 0.19535793364048004 </output>
					</split>
					<split pos="right">
						<output> 0.3856697678565979 </output>
					</split>
				</split>
				<split pos="right">
					<output> 0.4993273615837097 </output>
				</split>
			</split>
		</split>
	</tree>
	<tree id="2" weight="0.1">
		<split>
			<feature> 34 </feature>
			<threshold> 39.49776 </threshold>
			<split pos="left">
				<feature> 34 </feature>
				<threshold> 19.826786 </threshold>
				<split pos="left">
					<feature> 37 </feature>
					<threshold> 0.0 </threshold>
					<split pos="left">
						<feature> 34 </feature>
						<threshold> 11.396375 </threshold>
						<split pos="left">
							<output> 0.008368984796106815 </output>
						</split>
						<split pos="right">
							<feature> 38 </feature>
							<threshold> 0.0 </threshold>
							<split pos="left">
								<output> 0.021998722106218338 </output>
							</split>
							<split pos="right">
								<output> 0.03891642391681671 </output>
							</split>
						</split>
					</split>
					<split pos="right">
						<output> 0.06828112155199051 </output>
					</split>
				</split>
				<split pos="right">
					<feature> 37 </feature>
					<threshold> 0.01171875 </threshold>
					<split pos="left">
						<feature> 31 </feature>
						<threshold> 26.0 </threshold>
						<split pos="left">
							<output> 0.047312088310718536 </output>
						</split>
						<split pos="right">
							<output> 0.08758139610290527 </output>
						</split>
					</split>
					<split pos="right">
						<output> 0.15799400210380554 </output>
					</split>
				</split>
			</split>
			<split pos="right">
				<feature> 34 </feature>
				<threshold> 64.78904 </threshold>
				<split pos="left">
					<feature> 37 </feature>
					<threshold> 0.015625 </threshold>
					<split pos="left">
						<output> 0.15860195457935333 </output>
					</split>
					<split pos="right">
						<output> 0.3202725350856781 </output>
					</split>
				</split>
				<split pos="right">
					<output> 0.42143741250038147 </output>
				</split>
			</split>
		</split>
	</tree>
	<tree id="3" weight="0.1">
		<split>
			<feature> 34 </feature>
			<threshold> 46.05476 </threshold>
			<split pos="left">
				<feature> 34 </feature>
				<threshold> 25.44706 </threshold>
				<split pos="left">
					<feature> 37 </feature>
					<threshold> 0.0 </threshold>
					<split pos="left">
						<feature> 34 </feature>
						<threshold> 15.143224 </threshold>
						<split pos="left">
							<output> 0.011204144917428493 </output>
						</split>
						<split pos="right">
							<feature> 28 </feature>
							<threshold> 390.84375 </threshold>
							<split pos="left">
								<output> 0.025520779192447662 </output>
							</split>
							<split pos="right">
								<output> 0.04491160809993744 </output>
							</split>
						</split>
					</split>
					<split pos="right">
						<output> 0.07167070358991623 </output>
					</split>
				</split>
				<split pos="right">
					<feature> 37 </feature>
					<threshold> 0.015625 </threshold>
					<split pos="left">
						<feature> 28 </feature>
						<threshold> 466.86328 </threshold>
						<split pos="left">
							<feature> 38 </feature>
							<threshold> 0.0 </threshold>
							<split pos="left">
								<output> 0.0522412471473217 </output>
							</split>
							<split pos="right">
								<output> 0.08928141742944717 </output>
							</split>
						</split>
						<split pos="right">
							<output> 0.13042277097702026 </output>
						</split>
					</split>
					<split pos="right">
						<output> 0.18253947794437408 </output>
					</split>
				</split>
			</split>
			<split pos="right">
				<feature> 37 </feature>
				<threshold> 0.03515625 </threshold>
				<split pos="left">
					<output> 0.21305252611637115 </output>
				</split>
				<split pos="right">
					<output> 0.47956550121307373 </output>
				</split>
			</split>
		</split>
	</tree>
	<tree id="4" weight="0.1">
		<split>
			<feature> 34 </feature>
			<threshold> 48.864902 </threshold>
			<split pos="left">
				<feature> 34 </feature>
				<threshold> 27.320484 </threshold>
				<split pos="left">
					<feature> 37 </feature>
					<threshold> 0.0 </threshold>
					<split pos="left">
						<feature> 31 </feature>
						<threshold> 10.0 </threshold>
						<split pos="left">
							<feature> 1 </feature>
							<threshold> 19.0 </threshold>
							<split pos="left">
								<output> 0.004646620713174343 </output>
							</split>
							<split pos="right">
								<output> 0.01710176095366478 </output>
							</split>
						</split>
						<split pos="right">
							<feature> 38 </feature>
							<threshold> 0.0 </threshold>
							<split pos="left">
								<output> 0.02639993652701378 </output>
							</split>
							<split pos="right">
								<output> 0.05035770684480667 </output>
							</split>
						</split>
					</split>
					<split pos="right">
						<output> 0.06682532280683517 </output>
					</split>
				</split>
				<split pos="right">
					<feature> 37 </feature>
					<threshold> 0.01171875 </threshold>
					<split pos="left">
						<feature> 28 </feature>
						<threshold> 478.5586 </threshold>
						<split pos="left">
							<output> 0.06279505789279938 </output>
						</split>
						<split pos="right">
							<output> 0.14690040051937103 </output>
						</split>
					</split>
					<split pos="right">
						<output> 0.17390206456184387 </output>
					</split>
				</split>
			</split>
			<split pos="right">
				<feature> 28 </feature>
				<threshold> 480.5078 </threshold>
				<split pos="left">
					<output> 0.17223641276359558 </output>
				</split>
				<split pos="right">
					<output> 0.3799557387828827 </output>
				</split>
			</split>
		</split>
	</tree>
	<tree id="5" weight="0.1">
		<split>
			<feature> 34 </feature>
			<threshold> 36.68762 </threshold>
			<split pos="left">
				<feature> 34 </feature>
				<threshold> 17.953362 </threshold>
				<split pos="left">
					<feature> 38 </feature>
					<threshold> 0.0 </threshold>
					<split pos="left">
						<feature> 34 </feature>
						<threshold> 9.52295 </threshold>
						<split pos="left">
							<output> 0.0024084358010441065 </output>
						</split>
						<split pos="right">
							<output> 0.012224563397467136 </output>
						</split>
					</split>
					<split pos="right">
						<output> 0.028332674875855446 </output>
					</split>
				</split>
				<split pos="right">
					<feature> 37 </feature>
					<threshold> 0.0 </threshold>
					<split pos="left">
						<feature> 28 </feature>
						<threshold> 408.38672 </threshold>
						<split pos="left">
							<feature> 38 </feature>
							<threshold> 0.0 </threshold>
							<split pos="left">
								<output> 0.022456100210547447 </output>
							</split>
							<split pos="right">
								<output> 0.047334399074316025 </output>
							</split>
						</split>
						<split pos="right">
							<output> 0.05721007287502289 </output>
						</split>
					</split>
					<split pos="right">
						<output> 0.10676033049821854 </output>
					</split>
				</split>
			</split>
			<split pos="right">
				<feature> 34 </feature>
				<threshold> 75.092896 </threshold>
				<split pos="left">
					<feature> 28 </feature>
					<threshold> 472.71094 </threshold>
					<split pos="left">
						<output> 0.0980578064918518 </output>
					</split>
					<split pos="right">
						<output> 0.2178964465856552 </output>
					</split>
				</split>
				<split pos="right">
					<output> 0.3913404047489166 </output>
				</split>
			</split>
		</split>
	</tree>
	<tree id="6" weight="0.1">
		<split>
			<feature> 34 </feature>
			<threshold> 50.73833 </threshold>
			<split pos="left">
				<feature> 34 </feature>
				<threshold> 28.257196 </threshold>
				<split pos="left">
					<feature> 38 </feature>
					<threshold> 0.0 </threshold>
					<split pos="left">
						<feature> 31 </feature>
						<threshold> 11.0 </threshold>
						<split pos="left">
							<feature> 1 </feature>
							<threshold> 16.0 </threshold>
							<split pos="left">
								<output> 0.002880209358409047 </output>
							</split>
							<split pos="right">
								<output> 0.01125331874936819 </output>
							</split>
						</split>
						<split pos="right">
							<output> 0.022902602329850197 </output>
						</split>
					</split>
					<split pos="right">
						<feature> 33 </feature>
						<threshold> 279.9414 </threshold>
						<split pos="left">
							<output> 0.05613359808921814 </output>
						</split>
						<split pos="right">
							<output> 0.020115869119763374 </output>
						</split>
					</split>
				</split>
				<split pos="right">
					<feature> 37 </feature>
					<threshold> 0.03125 </threshold>
					<split pos="left">
						<feature> 28 </feature>
						<threshold> 457.1172 </threshold>
						<split pos="left">
							<output> 0.05011089891195297 </output>
						</split>
						<split pos="right">
							<output> 0.10613661259412766 </output>
						</split>
					</split>
					<split pos="right">
						<output> 0.17572472989559174 </output>
					</split>
				</split>
			</split>
			<split pos="right">
				<feature> 37 </feature>
				<threshold> 0.03125 </threshold>
				<split pos="left">
					<output> 0.17190486192703247 </output>
				</split>
				<split pos="right">
					<output> 0.40512117743492126 </output>
				</split>
			</split>
		</split>
	</tree>
	<tree id="7" weight="0.1">
		<split>
			<feature> 34 </feature>
			<threshold> 53.548473 </threshold>
			<split pos="left">
				<feature> 34 </feature>
				<threshold> 30.130621 </threshold>
				<split pos="left">
					<feature> 37 </feature>
					<threshold> 0.0 </threshold>
					<split pos="left">
						<feature> 31 </feature>
						<threshold> 13.0 </threshold>
						<split pos="left">
							<feature> 1 </feature>
							<threshold> 25.0 </threshold>
							<split pos="left">
								<output> 0.0038013667799532413 </output>
							</split>
							<split pos="right">
								<output> 0.01582271233201027 </output>
							</split>
						</split>
						<split pos="right">
							<feature> 1 </feature>
							<threshold> 19.0 </threshold>
							<split pos="left">
								<output> 0.019724922254681587 </output>
							</split>
							<split pos="right">
								<output> 0.03711525723338127 </output>
							</split>
						</split>
					</split>
					<split pos="right">
						<output> 0.05380051210522652 </output>
					</split>
				</split>
				<split pos="right">
					<feature> 37 </feature>
					<threshold> 0.01171875 </threshold>
					<split pos="left">
						<feature> 28 </feature>
						<threshold> 484.40625 </threshold>
						<split pos="left">
							<feature> 35 </feature>
							<threshold> 92.90353 </threshold>
							<split pos="left">
								<output> 0.0619405061006546 </output>
							</split>
							<split pos="right">
								<output> 2.926212619058788E-4 </output>
							</split>
						</split>
						<split pos="right">
							<output> 0.13628873229026794 </output>
						</split>
					</split>
					<split pos="right">
						<output> 0.14863255620002747 </output>
					</split>
				</split>
			</split>
			<split pos="right">
				<output> 0.2134454846382141 </output>
			</split>
		</split>
	</tree>
	<tree id="8" weight="0.1">
		<split>
			<feature> 34 </feature>
			<threshold> 56.358616 </threshold>
			<split pos="left">
				<feature> 34 </feature>
				<threshold> 31.067333 </threshold>
				<split pos="left">
					<feature> 34 </feature>
					<threshold> 16.079937 </threshold>
					<split pos="left">
						<feature> 1 </feature>
						<threshold> 16.0 </threshold>
						<split pos="left">
							<output> 0.003224469255656004 </output>
						</split>
						<split pos="right">
							<output> 0.012417497113347054 </output>
						</split>
					</split>
					<split pos="right">
						<feature> 37 </feature>
						<threshold> 0.015625 </threshold>
						<split pos="left">
							<feature> 35 </feature>
							<threshold> 58.284756 </threshold>
							<split pos="left">
								<feature> 38 </feature>
								<threshold> 0.0 </threshold>
								<split pos="left">
									<output> 0.020461631938815117 </output>
								</split>
								<split pos="right">
									<output> 0.05204072594642639 </output>
								</split>
							</split>
							<split pos="right">
								<output> 0.0018129936652258039 </output>
							</split>
						</split>
						<split pos="right">
							<output> 0.07621677964925766 </output>
						</split>
					</split>
				</split>
				<split pos="right">
					<feature> 37 </feature>
					<threshold> 0.0390625 </threshold>
					<split pos="left">
						<feature> 28 </feature>
						<threshold> 443.47266 </threshold>
						<split pos="left">
							<output> 0.041026853024959564 </output>
						</split>
						<split pos="right">
							<output> 0.0940551906824112 </output>
						</split>
					</split>
					<split pos="right">
						<output> 0.17029806971549988 </output>
					</split>
				</split>
			</split>
			<split pos="right">
				<output> 0.20641040802001953 </output>
			</split>
		</split>
	</tree>
	<tree id="9" weight="0.1">
		<split>
			<feature> 31 </feature>
			<threshold> 60.0 </threshold>
			<split pos="left">
				<feature> 34 </feature>
				<threshold> 23.573635 </threshold>
				<split pos="left">
					<feature> 37 </feature>
					<threshold> 0.0 </threshold>
					<split pos="left">
						<feature> 31 </feature>
						<threshold> 7.0 </threshold>
						<split pos="left">
							<output> 0.003359465626999736 </output>
						</split>
						<split pos="right">
							<feature> 1 </feature>
							<threshold> 24.0 </threshold>
							<split pos="left">
								<output> 0.010101214051246643 </output>
							</split>
							<split pos="right">
								<output> 0.020656874403357506 </output>
							</split>
						</split>
					</split>
					<split pos="right">
						<output> 0.037609752267599106 </output>
					</split>
				</split>
				<split pos="right">
					<feature> 37 </feature>
					<threshold> 0.05078125 </threshold>
					<split pos="left">
						<feature> 38 </feature>
						<threshold> 0.01171875 </threshold>
						<split pos="left">
							<feature> 36 </feature>
							<threshold> 101.66533 </threshold>
							<split pos="left">
								<feature> 28 </feature>
								<threshold> 420.08203 </threshold>
								<split pos="left">
									<output> 0.02431696467101574 </output>
								</split>
								<split pos="right">
									<output> 0.053140223026275635 </output>
								</split>
							</split>
							<split pos="right">
								<output> -0.0018788757734000683 </output>
							</split>
						</split>
						<split pos="right">
							<output> 0.06611698865890503 </output>
						</split>
					</split>
					<split pos="right">
						<output> 0.18245914578437805 </output>
					</split>
				</split>
			</split>
			<split pos="right">
				<output> 0.1630069762468338 </output>
			</split>
		</split>
	</tree>
	<tree id="10" weight="0.1">
		<split>
			<feature> 34 </feature>
			<threshold> 58.232044 </threshold>
			<split pos="left">
				<feature> 34 </feature>
				<threshold> 32.004047 </threshold>
				<split pos="left">
					<feature> 38 </feature>
					<threshold> 0.0 </threshold>
					<split pos="left">
						<feature> 31 </feature>
						<threshold> 14.0 </threshold>
						<split pos="left">
							<feature> 34 </feature>
							<threshold> 8.586238 </threshold>
							<split pos="left">
								<output> -3.944221680285409E-5 </output>
							</split>
							<split pos="right">
								<feature> 36 </feature>
								<threshold> 55.679447 </threshold>
								<split pos="left">
									<feature> 1 </feature>
									<threshold> 34.0 </threshold>
									<split pos="left">
										<output> 0.006758427247405052 </output>
									</split>
									<split pos="right">
										<output> 0.0166211798787117 </output>
									</split>
								</split>
								<split pos="right">
									<output> -9.336311486549675E-4 </output>
								</split>
							</split>
						</split>
						<split pos="right">
							<output> 0.01903592050075531 </output>
						</split>
					</split>
					<split pos="right">
						<feature> 33 </feature>
						<threshold> 372.92188 </threshold>
						<split pos="left">
							<output> 0.042349714785814285 </output>
						</split>
						<split pos="right">
							<output> 0.008885378018021584 </output>
						</split>
					</split>
				</split>
				<split pos="right">
					<feature> 38 </feature>
					<threshold> 0.01171875 </threshold>
					<split pos="left">
						<output> 0.03953959420323372 </output>
					</split>
					<split pos="right">
						<output> 0.09619354456663132 </output>
					</split>
				</split>
			</split>
			<split pos="right">
				<output> 0.18250250816345215 </output>
			</split>
		</split>
	</tree>
	<tree id="11" weight="0.1">
		<split>
			<feature> 31 </feature>
			<threshold> 78.0 </threshold>
			<split pos="left">
				<feature> 34 </feature>
				<threshold> 32.94076 </threshold>
				<split pos="left">
					<feature> 34 </feature>
					<threshold> 17.01665 </threshold>
					<split pos="left">
						<feature> 1 </feature>
						<threshold> 21.0 </threshold>
						<split pos="left">
							<output> 0.0021875621750950813 </output>
						</split>
						<split pos="right">
							<output> 0.011556933633983135 </output>
						</split>
					</split>
					<split pos="right">
						<feature> 37 </feature>
						<threshold> 0.03515625 </threshold>
						<split pos="left">
							<feature> 35 </feature>
							<threshold> 66.939445 </threshold>
							<split pos="left">
								<feature> 38 </feature>
								<threshold> 0.01171875 </threshold>
								<split pos="left">
									<output> 0.016183173283934593 </output>
								</split>
								<split pos="right">
									<output> 0.04660961776971817 </output>
								</split>
							</split>
							<split pos="right">
								<output> -0.004031382501125336 </output>
							</split>
						</split>
						<split pos="right">
							<output> 0.07379485666751862 </output>
						</split>
					</split>
				</split>
				<split pos="right">
					<feature> 37 </feature>
					<threshold> 0.046875 </threshold>
					<split pos="left">
						<feature> 35 </feature>
						<threshold> 123.194954 </threshold>
						<split pos="left">
							<output> 0.0548383854329586 </output>
						</split>
						<split pos="right">
							<output> -0.019939210265874863 </output>
						</split>
					</split>
					<split pos="right">
						<output> 0.20398686826229095 </output>
					</split>
				</split>
			</split>
			<split pos="right">
				<output> 0.18134503066539764 </output>
			</split>
		</split>
	</tree>
	<tree id="12" weight="0.1">
		<split>
			<feature> 34 </feature>
			<threshold> 61.9789 </threshold>
			<split pos="left">
				<feature> 28 </feature>
				<threshold> 435.67578 </threshold>
				<split pos="left">
					<feature> 1 </feature>
					<threshold> 30.0 </threshold>
					<split pos="left">
						<feature> 1 </feature>
						<threshold> 12.0 </threshold>
						<split pos="left">
							<output> -4.1318885632790625E-4 </output>
						</split>
						<split pos="right">
							<feature> 37 </feature>
							<threshold> 0.15625 </threshold>
							<split pos="left">
								<output> 0.0062192510813474655 </output>
							</split>
							<split pos="right">
								<output> 0.2856859862804413 </output>
							</split>
						</split>
					</split>
					<split pos="right">
						<feature> 37 </feature>
						<threshold> 0.06640625 </threshold>
						<split pos="left">
							<feature> 37 </feature>
							<threshold> 0.03515625 </threshold>
							<split pos="left">
								<feature> 28 </feature>
								<threshold> 297.28125 </threshold>
								<split pos="left">
									<output> 0.0096286591142416 </output>
								</split>
								<split pos="right">
									<output> 0.03034590370953083 </output>
								</split>
							</split>
							<split pos="right">
								<output> 0.11711546778678894 </output>
							</split>
						</split>
						<split pos="right">
							<output> 0.3537748157978058 </output>
						</split>
					</split>
				</split>
				<split pos="right">
					<feature> 30 </feature>
					<threshold> 23.096191 </threshold>
					<split pos="left">
						<output> 0.023382671177387238 </output>
					</split>
					<split pos="right">
						<output> 0.07053839415311813 </output>
					</split>
				</split>
			</split>
			<split pos="right">
				<output> 0.16899316012859344 </output>
			</split>
		</split>
	</tree>
	<tree id="13" weight="0.1">
		<split>
			<feature> 28 </feature>
			<threshold> 486.35547 </threshold>
			<split pos="left">
				<feature> 37 </feature>
				<threshold> 0.0 </threshold>
				<split pos="left">
					<feature> 31 </feature>
					<threshold> 18.0 </threshold>
					<split pos="left">
						<feature> 31 </feature>
						<threshold> 6.0 </threshold>
						<split pos="left">
							<output> 7.957834168337286E-4 </output>
						</split>
						<split pos="right">
							<feature> 32 </feature>
							<threshold> 62.59375 </threshold>
							<split pos="left">
								<feature> 38 </feature>
								<threshold> 0.0 </threshold>
								<split pos="left">
									<output> 0.007510258816182613 </output>
								</split>
								<split pos="right">
									<output> 0.026360219344496727 </output>
								</split>
							</split>
							<split pos="right">
								<output> -0.002450469881296158 </output>
							</split>
						</split>
					</split>
					<split pos="right">
						<feature> 35 </feature>
						<threshold> 149.15903 </threshold>
						<split pos="left">
							<feature> 38 </feature>
							<threshold> 0.0 </threshold>
							<split pos="left">
								<feature> 33 </feature>
								<threshold> 186.96094 </threshold>
								<split pos="left">
									<output> 0.025808896869421005 </output>
								</split>
								<split pos="right">
									<output> 0.003520220285281539 </output>
								</split>
							</split>
							<split pos="right">
								<output> 0.05168282240629196 </output>
							</split>
						</split>
						<split pos="right">
							<output> -0.08279767632484436 </output>
						</split>
					</split>
				</split>
				<split pos="right">
					<output> 0.050603851675987244 </output>
				</split>
			</split>
			<split pos="right">
				<output> 0.12336979806423187 </output>
			</split>
		</split>
	</tree>
	<tree id="14" weight="0.1">
		<split>
			<feature> 34 </feature>
			<threshold> 81.649895 </threshold>
			<split pos="left">
				<feature> 28 </feature>
				<threshold> 470.76172 </threshold>
				<split pos="left">
					<feature> 37 </feature>
					<threshold> 0.0 </threshold>
					<split pos="left">
						<feature> 35 </feature>
						<threshold> 127.5223 </threshold>
						<split pos="left">
							<feature> 31 </feature>
							<threshold> 20.0 </threshold>
							<split pos="left">
								<feature> 1 </feature>
								<threshold> 29.0 </threshold>
								<split pos="left">
									<feature> 28 </feature>
									<threshold> 314.82422 </threshold>
									<split pos="left">
										<output> 2.9022092348895967E-4 </output>
									</split>
									<split pos="right">
										<output> 0.0065094768069684505 </output>
									</split>
								</split>
								<split pos="right">
									<output> 0.009702109731733799 </output>
								</split>
							</split>
							<split pos="right">
								<feature> 38 </feature>
								<threshold> 0.01171875 </threshold>
								<split pos="left">
									<output> 0.015549909323453903 </output>
								</split>
								<split pos="right">
									<output> 0.04763546958565712 </output>
								</split>
							</split>
						</split>
						<split pos="right">
							<output> -0.047114044427871704 </output>
						</split>
					</split>
					<split pos="right">
						<output> 0.036247652024030685 </output>
					</split>
				</split>
				<split pos="right">
					<feature> 30 </feature>
					<threshold> 28.390411 </threshold>
					<split pos="left">
						<output> 0.03366043046116829 </output>
					</split>
					<split pos="right">
						<output> 0.10930964350700378 </output>
					</split>
				</split>
			</split>
			<split pos="right">
				<output> 0.25674664974212646 </output>
			</split>
		</split>
	</tree>
	<tree id="15" weight="0.1">
		<split>
			<feature> 31 </feature>
			<threshold> 99.0 </threshold>
			<split pos="left">
				<feature> 34 </feature>
				<threshold> 34.81419 </threshold>
				<split pos="left">
					<feature> 1 </feature>
					<threshold> 24.0 </threshold>
					<split pos="left">
						<feature> 28 </feature>
						<threshold> 423.98047 </threshold>
						<split pos="left">
							<output> 7.388094672933221E-4 </output>
						</split>
						<split pos="right">
							<output> 0.013232890516519547 </output>
						</split>
					</split>
					<split pos="right">
						<feature> 37 </feature>
						<threshold> 0.08203125 </threshold>
						<split pos="left">
							<feature> 37 </feature>
							<threshold> 0.04296875 </threshold>
							<split pos="left">
								<feature> 28 </feature>
								<threshold> 334.3164 </threshold>
								<split pos="left">
									<output> 0.0067710429430007935 </output>
								</split>
								<split pos="right">
									<output> 0.02749515511095524 </output>
								</split>
							</split>
							<split pos="right">
								<output> 0.10159190744161606 </output>
							</split>
						</split>
						<split pos="right">
							<output> 0.33566975593566895 </output>
						</split>
					</split>
				</split>
				<split pos="right">
					<feature> 37 </feature>
					<threshold> 0.01171875 </threshold>
					<split pos="left">
						<feature> 35 </feature>
						<threshold> 136.17699 </threshold>
						<split pos="left">
							<output> 0.03638993576169014 </output>
						</split>
						<split pos="right">
							<output> -0.0630318745970726 </output>
						</split>
					</split>
					<split pos="right">
						<output> 0.12500709295272827 </output>
					</split>
				</split>
			</split>
			<split pos="right">
				<output> 0.1866118311882019 </output>
			</split>
		</split>
	</tree>
	<tree id="16" weight="0.1">
		<split>
			<feature> 34 </feature>
			<threshold> 84.46004 </threshold>
			<split pos="left">
				<feature> 28 </feature>
				<threshold> 490.2539 </threshold>
				<split pos="left">
					<feature> 38 </feature>
					<threshold> 0.0 </threshold>
					<split pos="left">
						<feature> 36 </feature>
						<threshold> 132.32259 </threshold>
						<split pos="left">
							<feature> 28 </feature>
							<threshold> 381.09766 </threshold>
							<split pos="left">
								<feature> 1 </feature>
								<threshold> 11.0 </threshold>
								<split pos="left">
									<output> -0.0010743774473667145 </output>
								</split>
								<split pos="right">
									<output> 0.0037670109886676073 </output>
								</split>
							</split>
							<split pos="right">
								<feature> 1 </feature>
								<threshold> 16.0 </threshold>
								<split pos="left">
									<output> 0.004808359779417515 </output>
								</split>
								<split pos="right">
									<output> 0.02456657774746418 </output>
								</split>
							</split>
						</split>
						<split pos="right">
							<output> -0.02086295187473297 </output>
						</split>
					</split>
					<split pos="right">
						<feature> 1 </feature>
						<threshold> 26.0 </threshold>
						<split pos="left">
							<output> 0.005143996328115463 </output>
						</split>
						<split pos="right">
							<feature> 37 </feature>
							<threshold> 0.07421875 </threshold>
							<split pos="left">
								<output> 0.03315013274550438 </output>
							</split>
							<split pos="right">
								<output> 0.3161018490791321 </output>
							</split>
						</split>
					</split>
				</split>
				<split pos="right">
					<output> 0.09171765297651291 </output>
				</split>
			</split>
			<split pos="right">
				<output> 0.2357875555753708 </output>
			</split>
		</split>
	</tree>
	<tree id="17" weight="0.1">
		<split>
			<feature> 34 </feature>
			<threshold> 88.206894 </threshold>
			<split pos="left">
				<feature> 28 </feature>
				<threshold> 492.20312 </threshold>
				<split pos="left">
					<feature> 28 </feature>
					<threshold> 404.48828 </threshold>
					<split pos="left">
						<feature> 1 </feature>
						<threshold> 32.0 </threshold>
						<split pos="left">
							<feature> 32 </feature>
							<threshold> 154.98438 </threshold>
							<split pos="left">
								<output> 0.0013127245474606752 </output>
							</split>
							<split pos="right">
								<output> -0.014721585437655449 </output>
							</split>
						</split>
						<split pos="right">
							<feature> 37 </feature>
							<threshold> 0.0625 </threshold>
							<split pos="left">
								<feature> 37 </feature>
								<threshold> 0.03125 </threshold>
								<split pos="left">
									<output> 0.007902700453996658 </output>
								</split>
								<split pos="right">
									<output> 0.07795287668704987 </output>
								</split>
							</split>
							<split pos="right">
								<output> 0.2742650806903839 </output>
							</split>
						</split>
					</split>
					<split pos="right">
						<feature> 1 </feature>
						<threshold> 19.0 </threshold>
						<split pos="left">
							<output> 0.006621073465794325 </output>
						</split>
						<split pos="right">
							<feature> 37 </feature>
							<threshold> 0.05078125 </threshold>
							<split pos="left">
								<output> 0.03293520584702492 </output>
							</split>
							<split pos="right">
								<output> 0.1895735263824463 </output>
							</split>
						</split>
					</split>
				</split>
				<split pos="right">
					<output> 0.09530487656593323 </output>
				</split>
			</split>
			<split pos="right">
				<output> 0.23553553223609924 </output>
			</split>
		</split>
	</tree>
	<tree id="18" weight="0.1">
		<split>
			<feature> 31 </feature>
			<threshold> 116.0 </threshold>
			<split pos="left">
				<feature> 28 </feature>
				<threshold> 462.96484 </threshold>
				<split pos="left">
					<feature> 32 </feature>
					<threshold> 524.5469 </threshold>
					<split pos="left">
						<feature> 38 </feature>
						<threshold> 0.0 </threshold>
						<split pos="left">
							<feature> 36 </feature>
							<threshold> 94.001015 </threshold>
							<split pos="left">
								<feature> 34 </feature>
								<threshold> 20.763498 </threshold>
								<split pos="left">
									<output> 0.001576099544763565 </output>
								</split>
								<split pos="right">
									<output> 0.01151522621512413 </output>
								</split>
							</split>
							<split pos="right">
								<output> -0.010118268430233002 </output>
							</split>
						</split>
						<split pos="right">
							<feature> 33 </feature>
							<threshold> 186.96094 </threshold>
							<split pos="left">
								<output> 0.03778127580881119 </output>
							</split>
							<split pos="right">
								<output> 0.007273468188941479 </output>
							</split>
						</split>
					</split>
					<split pos="right">
						<output> -0.06083400174975395 </output>
					</split>
				</split>
				<split pos="right">
					<feature> 30 </feature>
					<threshold> 93.68579 </threshold>
					<split pos="left">
						<feature> 30 </feature>
						<threshold> 31.919891 </threshold>
						<split pos="left">
							<output> 0.019528117030858994 </output>
						</split>
						<split pos="right">
							<output> 0.07078055292367935 </output>
						</split>
					</split>
					<split pos="right">
						<output> 0.25224825739860535 </output>
					</split>
				</split>
			</split>
			<split pos="right">
				<output> 0.19036038219928741 </output>
			</split>
		</split>
	</tree>
	<tree id="19" weight="0.1">
		<split>
			<feature> 34 </feature>
			<threshold> 93.82718 </threshold>
			<split pos="left">
				<feature> 28 </feature>
				<threshold> 494.15234 </threshold>
				<split pos="left">
					<feature> 37 </feature>
					<threshold> 0.0 </threshold>
					<split pos="left">
						<feature> 35 </feature>
						<threshold> 188.10515 </threshold>
						<split pos="left">
							<feature> 31 </feature>
							<threshold> 21.0 </threshold>
							<split pos="left">
								<feature> 36 </feature>
								<threshold> 155.3155 </threshold>
								<split pos="left">
									<feature> 38 </feature>
									<threshold> 0.0 </threshold>
									<split pos="left">
										<feature> 28 </feature>
										<threshold> 240.7539 </threshold>
										<split pos="left">
											<output> -3.689875011332333E-4 </output>
										</split>
										<split pos="right">
											<output> 0.004227024503052235 </output>
										</split>
									</split>
									<split pos="right">
										<output> 0.012021725066006184 </output>
									</split>
								</split>
								<split pos="right">
									<output> -0.012339510023593903 </output>
								</split>
							</split>
							<split pos="right">
								<feature> 38 </feature>
								<threshold> 0.01171875 </threshold>
								<split pos="left">
									<output> 0.009804555214941502 </output>
								</split>
								<split pos="right">
									<output> 0.037240445613861084 </output>
								</split>
							</split>
						</split>
						<split pos="right">
							<output> -0.11416734755039215 </output>
						</split>
					</split>
					<split pos="right">
						<output> 0.02874606102705002 </output>
					</split>
				</split>
				<split pos="right">
					<output> 0.09582918882369995 </output>
				</split>
			</split>
			<split pos="right">
				<output> 0.22992810606956482 </output>
			</split>
		</split>
	</tree>
	<tree id="20" weight="0.1">
		<split>
			<feature> 31 </feature>
			<threshold> 121.0 </threshold>
			<split pos="left">
				<feature> 34 </feature>
				<threshold> 35.750904 </threshold>
				<split pos="left">
					<feature> 32 </feature>
					<threshold> 278.17188 </threshold>
					<split pos="left">
						<feature> 34 </feature>
						<threshold> 18.890074 </threshold>
						<split pos="left">
							<feature> 1 </feature>
							<threshold> 8.0 </threshold>
							<split pos="left">
								<output> -0.0028015770949423313 </output>
							</split>
							<split pos="right">
								<feature> 37 </feature>
								<threshold> 0.234375 </threshold>
								<split pos="left">
									<output> 0.003270080080255866 </output>
								</split>
								<split pos="right">
									<output> 0.5094578862190247 </output>
								</split>
							</split>
						</split>
						<split pos="right">
							<feature> 37 </feature>
							<threshold> 0.0625 </threshold>
							<split pos="left">
								<feature> 38 </feature>
								<threshold> 0.015625 </threshold>
								<split pos="left">
									<output> 0.006035014055669308 </output>
								</split>
								<split pos="right">
									<output> 0.025693515315651894 </output>
								</split>
							</split>
							<split pos="right">
								<output> 0.11421210318803787 </output>
							</split>
						</split>
					</split>
					<split pos="right">
						<output> -0.02823433093726635 </output>
					</split>
				</split>
				<split pos="right">
					<feature> 37 </feature>
					<threshold> 0.01171875 </threshold>
					<split pos="left">
						<output> 0.01812898740172386 </output>
					</split>
					<split pos="right">
						<output> 0.0962730348110199 </output>
					</split>
				</split>
			</split>
			<split pos="right">
				<output> 0.17351114749908447 </output>
			</split>
		</split>
	</tree>
	<tree id="21" weight="0.1">
		<split>
			<feature> 28 </feature>
			<threshold> 492.20312 </threshold>
			<split pos="left">
				<feature> 34 </feature>
				<threshold> 109.75132 </threshold>
				<split pos="left">
					<feature> 32 </feature>
					<threshold> 709.3281 </threshold>
					<split pos="left">
						<feature> 34 </feature>
						<threshold> 33.877476 </threshold>
						<split pos="left">
							<feature> 32 </feature>
							<threshold> 216.57812 </threshold>
							<split pos="left">
								<feature> 37 </feature>
								<threshold> 0.0 </threshold>
								<split pos="left">
									<feature> 31 </feature>
									<threshold> 9.0 </threshold>
									<split pos="left">
										<output> 2.0495004719123244E-4 </output>
									</split>
									<split pos="right">
										<feature> 1 </feature>
										<threshold> 13.0 </threshold>
										<split pos="left">
											<output> 3.4484523348510265E-4 </output>
										</split>
										<split pos="right">
											<output> 0.010231263004243374 </output>
										</split>
									</split>
								</split>
								<split pos="right">
									<output> 0.024035567417740822 </output>
								</split>
							</split>
							<split pos="right">
								<output> -0.018157243728637695 </output>
							</split>
						</split>
						<split pos="right">
							<feature> 37 </feature>
							<threshold> 0.0625 </threshold>
							<split pos="left">
								<output> 0.019481349736452103 </output>
							</split>
							<split pos="right">
								<output> 0.17637431621551514 </output>
							</split>
						</split>
					</split>
					<split pos="right">
						<output> -0.0743342936038971 </output>
					</split>
				</split>
				<split pos="right">
					<output> 0.2405688464641571 </output>
				</split>
			</split>
			<split pos="right">
				<output> 0.0849609524011612 </output>
			</split>
		</split>
	</tree>
	<tree id="22" weight="0.1">
		<split>
			<feature> 34 </feature>
			<threshold> 98.51075 </threshold>
			<split pos="left">
				<feature> 28 </feature>
				<threshold> 496.10156 </threshold>
				<split pos="left">
					<feature> 28 </feature>
					<threshold> 429.82812 </threshold>
					<split pos="left">
						<feature> 32 </feature>
						<threshold> 185.78125 </threshold>
						<split pos="left">
							<feature> 37 </feature>
							<threshold> 0.0 </threshold>
							<split pos="left">
								<feature> 35 </feature>
								<threshold> 79.921486 </threshold>
								<split pos="left">
									<feature> 1 </feature>
									<threshold> 30.0 </threshold>
									<split pos="left">
										<feature> 28 </feature>
										<threshold> 271.9414 </threshold>
										<split pos="left">
											<output> -9.192707948386669E-4 </output>
										</split>
										<split pos="right">
											<output> 0.0029337548185139894 </output>
										</split>
									</split>
									<split pos="right">
										<output> 0.007132159546017647 </output>
									</split>
								</split>
								<split pos="right">
									<output> -0.020816832780838013 </output>
								</split>
							</split>
							<split pos="right">
								<output> 0.02366594411432743 </output>
							</split>
						</split>
						<split pos="right">
							<output> -0.016784772276878357 </output>
						</split>
					</split>
					<split pos="right">
						<feature> 30 </feature>
						<threshold> 33.68463 </threshold>
						<split pos="left">
							<output> 0.00730155361816287 </output>
						</split>
						<split pos="right">
							<output> 0.04394597187638283 </output>
						</split>
					</split>
				</split>
				<split pos="right">
					<output> 0.09216499328613281 </output>
				</split>
			</split>
			<split pos="right">
				<output> 0.20928855240345 </output>
			</split>
		</split>
	</tree>
	<tree id="23" weight="0.1">
		<split>
			<feature> 31 </feature>
			<threshold> 133.0 </threshold>
			<split pos="left">
				<feature> 28 </feature>
				<threshold> 476.60938 </threshold>
				<split pos="left">
					<feature> 32 </feature>
					<threshold> 616.9375 </threshold>
					<split pos="left">
						<feature> 1 </feature>
						<threshold> 32.0 </threshold>
						<split pos="left">
							<feature> 32 </feature>
							<threshold> 93.390625 </threshold>
							<split pos="left">
								<feature> 28 </feature>
								<threshold> 355.7578 </threshold>
								<split pos="left">
									<output> -2.162017917726189E-4 </output>
								</split>
								<split pos="right">
									<output> 0.007152558770030737 </output>
								</split>
							</split>
							<split pos="right">
								<output> -0.007390260696411133 </output>
							</split>
						</split>
						<split pos="right">
							<feature> 37 </feature>
							<threshold> 0.0625 </threshold>
							<split pos="left">
								<feature> 37 </feature>
								<threshold> 0.03125 </threshold>
								<split pos="left">
									<feature> 35 </feature>
									<threshold> 97.23087 </threshold>
									<split pos="left">
										<output> 0.009234054014086723 </output>
									</split>
									<split pos="right">
										<output> -0.021231092512607574 </output>
									</split>
								</split>
								<split pos="right">
									<output> 0.0856180340051651 </output>
								</split>
							</split>
							<split pos="right">
								<output> 0.2918721139431 </output>
							</split>
						</split>
					</split>
					<split pos="right">
						<output> -0.06874779611825943 </output>
					</split>
				</split>
				<split pos="right">
					<output> 0.034493036568164825 </output>
				</split>
			</split>
			<split pos="right">
				<output> 0.17178377509117126 </output>
			</split>
		</split>
	</tree>
	<tree id="24" weight="0.1">
		<split>
			<feature> 34 </feature>
			<threshold> 77.90304 </threshold>
			<split pos="left">
				<feature> 34 </feature>
				<threshold> 35.750904 </threshold>
				<split pos="left">
					<feature> 32 </feature>
					<threshold> 247.375 </threshold>
					<split pos="left">
						<feature> 34 </feature>
						<threshold> 20.763498 </threshold>
						<split pos="left">
							<feature> 1 </feature>
							<threshold> 8.0 </threshold>
							<split pos="left">
								<output> -0.002966582542285323 </output>
							</split>
							<split pos="right">
								<feature> 37 </feature>
								<threshold> 0.11328125 </threshold>
								<split pos="left">
									<feature> 32 </feature>
									<threshold> 62.59375 </threshold>
									<split pos="left">
										<output> 0.003502002451568842 </output>
									</split>
									<split pos="right">
										<output> -0.005913321394473314 </output>
									</split>
								</split>
								<split pos="right">
									<output> 0.15591606497764587 </output>
								</split>
							</split>
						</split>
						<split pos="right">
							<feature> 37 </feature>
							<threshold> 0.05078125 </threshold>
							<split pos="left">
								<output> 0.007963559590280056 </output>
							</split>
							<split pos="right">
								<output> 0.09522220492362976 </output>
							</split>
						</split>
					</split>
					<split pos="right">
						<output> -0.019818291068077087 </output>
					</split>
				</split>
				<split pos="right">
					<feature> 38 </feature>
					<threshold> 0.015625 </threshold>
					<split pos="left">
						<output> 0.004687476437538862 </output>
					</split>
					<split pos="right">
						<output> 0.0491408109664917 </output>
					</split>
				</split>
			</split>
			<split pos="right">
				<output> 0.10535695403814316 </output>
			</split>
		</split>
	</tree>
	<tree id="25" weight="0.1">
		<split>
			<feature> 34 </feature>
			<threshold> 102.25761 </threshold>
			<split pos="left">
				<feature> 28 </feature>
				<threshold> 496.10156 </threshold>
				<split pos="left">
					<feature> 32 </feature>
					<threshold> 924.90625 </threshold>
					<split pos="left">
						<feature> 38 </feature>
						<threshold> 0.01171875 </threshold>
						<split pos="left">
							<feature> 36 </feature>
							<threshold> 116.99396 </threshold>
							<split pos="left">
								<feature> 34 </feature>
								<threshold> 33.877476 </threshold>
								<split pos="left">
									<feature> 36 </feature>
									<threshold> 55.679447 </threshold>
									<split pos="left">
										<feature> 34 </feature>
										<threshold> 14.2065115 </threshold>
										<split pos="left">
											<output> 1.7198022396769375E-4 </output>
										</split>
										<split pos="right">
											<output> 0.00647277245298028 </output>
										</split>
									</split>
									<split pos="right">
										<output> -0.0035735727287828922 </output>
									</split>
								</split>
								<split pos="right">
									<output> 0.013124074786901474 </output>
								</split>
							</split>
							<split pos="right">
								<output> -0.017676714807748795 </output>
							</split>
						</split>
						<split pos="right">
							<feature> 34 </feature>
							<threshold> 44.18133 </threshold>
							<split pos="left">
								<output> 0.008264277130365372 </output>
							</split>
							<split pos="right">
								<output> 0.0653906986117363 </output>
							</split>
						</split>
					</split>
					<split pos="right">
						<output> -0.08340330421924591 </output>
					</split>
				</split>
				<split pos="right">
					<output> 0.07656443864107132 </output>
				</split>
			</split>
			<split pos="right">
				<output> 0.18742480874061584 </output>
			</split>
		</split>
	</tree>
	<tree id="26" weight="0.1">
		<split>
			<feature> 31 </feature>
			<threshold> 145.0 </threshold>
			<split pos="left">
				<feature> 28 </feature>
				<threshold> 482.45703 </threshold>
				<split pos="left">
					<feature> 32 </feature>
					<threshold> 462.95312 </threshold>
					<split pos="left">
						<feature> 28 </feature>
						<threshold> 359.65625 </threshold>
						<split pos="left">
							<feature> 32 </feature>
							<threshold> 93.390625 </threshold>
							<split pos="left">
								<feature> 37 </feature>
								<threshold> 0.0 </threshold>
								<split pos="left">
									<output> 4.3346633901819587E-4 </output>
								</split>
								<split pos="right">
									<output> 0.020935488864779472 </output>
								</split>
							</split>
							<split pos="right">
								<output> -0.00866636075079441 </output>
							</split>
						</split>
						<split pos="right">
							<feature> 37 </feature>
							<threshold> 0.0 </threshold>
							<split pos="left">
								<feature> 36 </feature>
								<threshold> 216.62996 </threshold>
								<split pos="left">
									<feature> 38 </feature>
									<threshold> 0.0 </threshold>
									<split pos="left">
										<output> 0.0037283438723534346 </output>
									</split>
									<split pos="right">
										<output> 0.029746411368250847 </output>
									</split>
								</split>
								<split pos="right">
									<output> -0.03477231785655022 </output>
								</split>
							</split>
							<split pos="right">
								<output> 0.04838402569293976 </output>
							</split>
						</split>
					</split>
					<split pos="right">
						<output> -0.046954602003097534 </output>
					</split>
				</split>
				<split pos="right">
					<output> 0.0326819084584713 </output>
				</split>
			</split>
			<split pos="right">
				<output> 0.17431285977363586 </output>
			</split>
		</split>
	</tree>
	<tree id="27" weight="0.1">
		<split>
			<feature> 34 </feature>
			<threshold> 105.06775 </threshold>
			<split pos="left">
				<feature> 28 </feature>
				<threshold> 496.10156 </threshold>
				<split pos="left">
					<feature> 33 </feature>
					<threshold> 3441.2773 </threshold>
					<split pos="left">
						<feature> 38 </feature>
						<threshold> 0.01171875 </threshold>
						<split pos="left">
							<feature> 36 </feature>
							<threshold> 147.6512 </threshold>
							<split pos="left">
								<feature> 30 </feature>
								<threshold> 254.27713 </threshold>
								<split pos="left">
									<feature> 36 </feature>
									<threshold> 78.672386 </threshold>
									<split pos="left">
										<feature> 34 </feature>
										<threshold> 26.383772 </threshold>
										<split pos="left">
											<output> 7.972933817654848E-4 </output>
										</split>
										<split pos="right">
											<output> 0.012608036398887634 </output>
										</split>
									</split>
									<split pos="right">
										<output> -0.005362316034734249 </output>
									</split>
								</split>
								<split pos="right">
									<output> 0.2999689280986786 </output>
								</split>
							</split>
							<split pos="right">
								<output> -0.025342050939798355 </output>
							</split>
						</split>
						<split pos="right">
							<feature> 34 </feature>
							<threshold> 37.624332 </threshold>
							<split pos="left">
								<output> 0.006193765439093113 </output>
							</split>
							<split pos="right">
								<output> 0.05573692172765732 </output>
							</split>
						</split>
					</split>
					<split pos="right">
						<output> -0.04741378873586655 </output>
					</split>
				</split>
				<split pos="right">
					<output> 0.06551292538642883 </output>
				</split>
			</split>
			<split pos="right">
				<output> 0.17356231808662415 </output>
			</split>
		</split>
	</tree>
	<tree id="28" weight="0.1">
		<split>
			<feature> 34 </feature>
			<threshold> 72.28275 </threshold>
			<split pos="left">
				<feature> 32 </feature>
				<threshold> 647.7344 </threshold>
				<split pos="left">
					<feature> 34 </feature>
					<threshold> 34.81419 </threshold>
					<split pos="left">
						<feature> 1 </feature>
						<threshold> 15.0 </threshold>
						<split pos="left">
							<output> -0.001976713305339217 </output>
						</split>
						<split pos="right">
							<feature> 37 </feature>
							<threshold> 0.125 </threshold>
							<split pos="left">
								<feature> 37 </feature>
								<threshold> 0.0625 </threshold>
								<split pos="left">
									<feature> 28 </feature>
									<threshold> 269.9922 </threshold>
									<split pos="left">
										<output> -5.026582512073219E-4 </output>
									</split>
									<split pos="right">
										<output> 0.009309451095759869 </output>
									</split>
								</split>
								<split pos="right">
									<output> 0.06757546961307526 </output>
								</split>
							</split>
							<split pos="right">
								<output> 0.3105413615703583 </output>
							</split>
						</split>
					</split>
					<split pos="right">
						<feature> 37 </feature>
						<threshold> 0.0859375 </threshold>
						<split pos="left">
							<feature> 38 </feature>
							<threshold> 0.015625 </threshold>
							<split pos="left">
								<output> 0.003145885653793812 </output>
							</split>
							<split pos="right">
								<output> 0.036648355424404144 </output>
							</split>
						</split>
						<split pos="right">
							<output> 0.16170068085193634 </output>
						</split>
					</split>
				</split>
				<split pos="right">
					<output> -0.05716750770807266 </output>
				</split>
			</split>
			<split pos="right">
				<output> 0.06757988780736923 </output>
			</split>
		</split>
	</tree>
	<tree id="29" weight="0.1">
		<split>
			<feature> 31 </feature>
			<threshold> 147.0 </threshold>
			<split pos="left">
				<feature> 30 </feature>
				<threshold> 150.15747 </threshold>
				<split pos="left">
					<feature> 33 </feature>
					<threshold> 2325.5117 </threshold>
					<split pos="left">
						<feature> 28 </feature>
						<threshold> 453.21875 </threshold>
						<split pos="left">
							<feature> 32 </feature>
							<threshold> 124.1875 </threshold>
							<split pos="left">
								<feature> 38 </feature>
								<threshold> 0.0 </threshold>
								<split pos="left">
									<feature> 36 </feature>
									<threshold> 71.00807 </threshold>
									<split pos="left">
										<feature> 31 </feature>
										<threshold> 5.0 </threshold>
										<split pos="left">
											<output> -0.0011440275702625513 </output>
										</split>
										<split pos="right">
											<output> 0.0032077596988528967 </output>
										</split>
									</split>
									<split pos="right">
										<output> -0.0070248814299702644 </output>
									</split>
								</split>
								<split pos="right">
									<output> 0.011314612813293934 </output>
								</split>
							</split>
							<split pos="right">
								<output> -0.008496120572090149 </output>
							</split>
						</split>
						<split pos="right">
							<feature> 38 </feature>
							<threshold> 0.01171875 </threshold>
							<split pos="left">
								<output> 0.0035116206854581833 </output>
							</split>
							<split pos="right">
								<output> 0.04730889946222305 </output>
							</split>
						</split>
					</split>
					<split pos="right">
						<output> -0.03372670337557793 </output>
					</split>
				</split>
				<split pos="right">
					<output> 0.10188691318035126 </output>
				</split>
			</split>
			<split pos="right">
				<output> 0.14884357154369354 </output>
			</split>
		</split>
	</tree>
	<tree id="30" weight="0.1">
		<split>
			<feature> 34 </feature>
			<threshold> 111.62475 </threshold>
			<split pos="left">
				<feature> 28 </feature>
				<threshold> 498.05078 </threshold>
				<split pos="left">
					<feature> 32 </feature>
					<threshold> 401.35938 </threshold>
					<split pos="left">
						<feature> 34 </feature>
						<threshold> 29.193909 </threshold>
						<split pos="left">
							<feature> 1 </feature>
							<threshold> 11.0 </threshold>
							<split pos="left">
								<output> -0.0023618987761437893 </output>
							</split>
							<split pos="right">
								<feature> 37 </feature>
								<threshold> 0.16796875 </threshold>
								<split pos="left">
									<feature> 37 </feature>
									<threshold> 0.0859375 </threshold>
									<split pos="left">
										<feature> 28 </feature>
										<threshold> 231.00781 </threshold>
										<split pos="left">
											<output> -9.7725132945925E-4 </output>
										</split>
										<split pos="right">
											<output> 0.006174275651574135 </output>
										</split>
									</split>
									<split pos="right">
										<output> 0.07631038874387741 </output>
									</split>
								</split>
								<split pos="right">
									<output> 0.3526768386363983 </output>
								</split>
							</split>
						</split>
						<split pos="right">
							<feature> 37 </feature>
							<threshold> 0.078125 </threshold>
							<split pos="left">
								<output> 0.011295015923678875 </output>
							</split>
							<split pos="right">
								<output> 0.15514062345027924 </output>
							</split>
						</split>
					</split>
					<split pos="right">
						<output> -0.027655741199851036 </output>
					</split>
				</split>
				<split pos="right">
					<output> 0.07863523811101913 </output>
				</split>
			</split>
			<split pos="right">
				<output> 0.1667936146259308 </output>
			</split>
		</split>
	</tree>
	<tree id="31" weight="0.1">
		<split>
			<feature> 34 </feature>
			<threshold> 91.95375 </threshold>
			<split pos="left">
				<feature> 33 </feature>
				<threshold> 2697.4336 </threshold>
				<split pos="left">
					<feature> 34 </feature>
					<threshold> 40.434475 </threshold>
					<split pos="left">
						<feature> 1 </feature>
						<threshold> 37.0 </threshold>
						<split pos="left">
							<feature> 32 </feature>
							<threshold> 154.98438 </threshold>
							<split pos="left">
								<feature> 1 </feature>
								<threshold> 8.0 </threshold>
								<split pos="left">
									<output> -0.002751503372564912 </output>
								</split>
								<split pos="right">
									<feature> 37 </feature>
									<threshold> 0.234375 </threshold>
									<split pos="left">
										<feature> 37 </feature>
										<threshold> 0.11328125 </threshold>
										<split pos="left">
											<feature> 28 </feature>
											<threshold> 355.7578 </threshold>
											<split pos="left">
												<output> -4.1833543218672276E-4 </output>
											</split>
											<split pos="right">
												<output> 0.007329975254833698 </output>
											</split>
										</split>
										<split pos="right">
											<output> 0.1229395642876625 </output>
										</split>
									</split>
									<split pos="right">
										<output> 0.4813801944255829 </output>
									</split>
								</split>
							</split>
							<split pos="right">
								<output> -0.011075073853135109 </output>
							</split>
						</split>
						<split pos="right">
							<output> 0.00771070271730423 </output>
						</split>
					</split>
					<split pos="right">
						<output> 0.02104964479804039 </output>
					</split>
				</split>
				<split pos="right">
					<output> -0.03248152509331703 </output>
				</split>
			</split>
			<split pos="right">
				<output> 0.09344370663166046 </output>
			</split>
		</split>
	</tree>
	<tree id="32" weight="0.1">
		<split>
			<feature> 28 </feature>
			<threshold> 494.15234 </threshold>
			<split pos="left">
				<feature> 30 </feature>
				<threshold> 166.04013 </threshold>
				<split pos="left">
					<feature> 32 </feature>
					<threshold> 339.76562 </threshold>
					<split pos="left">
						<feature> 28 </feature>
						<threshold> 396.6914 </threshold>
						<split pos="left">
							<feature> 33 </feature>
							<threshold> 93.98047 </threshold>
							<split pos="left">
								<feature> 38 </feature>
								<threshold> 0.0 </threshold>
								<split pos="left">
									<output> 8.550183265469968E-4 </output>
								</split>
								<split pos="right">
									<output> 0.027008969336748123 </output>
								</split>
							</split>
							<split pos="right">
								<output> -0.003499172395095229 </output>
							</split>
						</split>
						<split pos="right">
							<feature> 38 </feature>
							<threshold> 0.01171875 </threshold>
							<split pos="left">
								<feature> 36 </feature>
								<threshold> 139.9869 </threshold>
								<split pos="left">
									<feature> 1 </feature>
									<threshold> 12.0 </threshold>
									<split pos="left">
										<output> -0.0021667915862053633 </output>
									</split>
									<split pos="right">
										<output> 0.008310270495712757 </output>
									</split>
								</split>
								<split pos="right">
									<output> -0.041777513921260834 </output>
								</split>
							</split>
							<split pos="right">
								<output> 0.029552772641181946 </output>
							</split>
						</split>
					</split>
					<split pos="right">
						<output> -0.024291427806019783 </output>
					</split>
				</split>
				<split pos="right">
					<output> 0.10895849019289017 </output>
				</split>
			</split>
			<split pos="right">
				<output> 0.04577016457915306 </output>
			</split>
		</split>
	</tree>
	<tree id="33" weight="0.1">
		<split>
			<feature> 31 </feature>
			<threshold> 160.0 </threshold>
			<split pos="left">
				<feature> 32 </feature>
				<threshold> 1694.8281 </threshold>
				<split pos="left">
					<feature> 34 </feature>
					<threshold> 60.105473 </threshold>
					<split pos="left">
						<feature> 33 </feature>
						<threshold> 1023.78516 </threshold>
						<split pos="left">
							<feature> 38 </feature>
							<threshold> 0.015625 </threshold>
							<split pos="left">
								<feature> 36 </feature>
								<threshold> 86.3367 </threshold>
								<split pos="left">
									<feature> 34 </feature>
									<threshold> 35.750904 </threshold>
									<split pos="left">
										<feature> 28 </feature>
										<threshold> 492.20312 </threshold>
										<split pos="left">
											<feature> 30 </feature>
											<threshold> 254.27713 </threshold>
											<split pos="left">
												<output> 8.659858140163124E-4 </output>
											</split>
											<split pos="right">
												<output> 0.3130277097225189 </output>
											</split>
										</split>
										<split pos="right">
											<output> -0.0265479888767004 </output>
										</split>
									</split>
									<split pos="right">
										<output> 0.014810143038630486 </output>
									</split>
								</split>
								<split pos="right">
									<output> -0.007930013351142406 </output>
								</split>
							</split>
							<split pos="right">
								<output> 0.010274579748511314 </output>
							</split>
						</split>
						<split pos="right">
							<output> -0.017369374632835388 </output>
						</split>
					</split>
					<split pos="right">
						<output> 0.034343164414167404 </output>
					</split>
				</split>
				<split pos="right">
					<output> -0.12602347135543823 </output>
				</split>
			</split>
			<split pos="right">
				<output> 0.1573820263147354 </output>
			</split>
		</split>
	</tree>
	<tree id="34" weight="0.1">
		<split>
			<feature> 34 </feature>
			<threshold> 115.371605 </threshold>
			<split pos="left">
				<feature> 28 </feature>
				<threshold> 498.05078 </threshold>
				<split pos="left">
					<feature> 33 </feature>
					<threshold> 8648.184 </threshold>
					<split pos="left">
						<feature> 15 </feature>
						<threshold> 0.6 </threshold>
						<split pos="left">
							<feature> 1 </feature>
							<threshold> 25.0 </threshold>
							<split pos="left">
								<output> -0.0011504905996844172 </output>
							</split>
							<split pos="right">
								<feature> 37 </feature>
								<threshold> 0.078125 </threshold>
								<split pos="left">
									<feature> 37 </feature>
									<threshold> 0.0390625 </threshold>
									<split pos="left">
										<feature> 36 </feature>
										<threshold> 185.97273 </threshold>
										<split pos="left">
											<feature> 38 </feature>
											<threshold> 0.0390625 </threshold>
											<split pos="left">
												<output> 0.0028266466688364744 </output>
											</split>
											<split pos="right">
												<output> 0.03593333438038826 </output>
											</split>
										</split>
										<split pos="right">
											<output> -0.02275768294930458 </output>
										</split>
									</split>
									<split pos="right">
										<output> 0.06234074383974075 </output>
									</split>
								</split>
								<split pos="right">
									<output> 0.19536204636096954 </output>
								</split>
							</split>
						</split>
						<split pos="right">
							<output> 0.0701148509979248 </output>
						</split>
					</split>
					<split pos="right">
						<output> -0.09321144968271255 </output>
					</split>
				</split>
				<split pos="right">
					<output> 0.06395988166332245 </output>
				</split>
			</split>
			<split pos="right">
				<output> 0.14590035378932953 </output>
			</split>
		</split>
	</tree>
	<tree id="35" weight="0.1">
		<split>
			<feature> 31 </feature>
			<threshold> 136.0 </threshold>
			<split pos="left">
				<feature> 30 </feature>
				<threshold> 164.27539 </threshold>
				<split pos="left">
					<feature> 32 </feature>
					<threshold> 1171.2812 </threshold>
					<split pos="left">
						<feature> 31 </feature>
						<threshold> 91.0 </threshold>
						<split pos="left">
							<feature> 33 </feature>
							<threshold> 558.8828 </threshold>
							<split pos="left">
								<feature> 38 </feature>
								<threshold> 0.01171875 </threshold>
								<split pos="left">
									<feature> 30 </feature>
									<threshold> 61.92047 </threshold>
									<split pos="left">
										<feature> 13 </feature>
										<threshold> 0.857143 </threshold>
										<split pos="left">
											<feature> 8 </feature>
											<threshold> 1.0 </threshold>
											<split pos="left">
												<output> 0.004811295308172703 </output>
											</split>
											<split pos="right">
												<output> 4.998010990675539E-5 </output>
											</split>
										</split>
										<split pos="right">
											<output> 0.1646554321050644 </output>
										</split>
									</split>
									<split pos="right">
										<output> -0.013462495990097523 </output>
									</split>
								</split>
								<split pos="right">
									<output> 0.012179105542600155 </output>
								</split>
							</split>
							<split pos="right">
								<output> -0.008826389908790588 </output>
							</split>
						</split>
						<split pos="right">
							<output> 0.038566138595342636 </output>
						</split>
					</split>
					<split pos="right">
						<output> -0.08238540589809418 </output>
					</split>
				</split>
				<split pos="right">
					<output> 0.09042870253324509 </output>
				</split>
			</split>
			<split pos="right">
				<output> 0.08498825132846832 </output>
			</split>
		</split>
	</tree>
	<tree id="36" weight="0.1">
		<split>
			<feature> 28 </feature>
			<threshold> 488.3047 </threshold>
			<split pos="left">
				<feature> 32 </feature>
				<threshold> 401.35938 </threshold>
				<split pos="left">
					<feature> 30 </feature>
					<threshold> 241.92395 </threshold>
					<split pos="left">
						<feature> 1 </feature>
						<threshold> 37.0 </threshold>
						<split pos="left">
							<feature> 30 </feature>
							<threshold> 111.33319 </threshold>
							<split pos="left">
								<feature> 37 </feature>
								<threshold> 0.03125 </threshold>
								<split pos="left">
									<feature> 36 </feature>
									<threshold> 109.32964 </threshold>
									<split pos="left">
										<feature> 1 </feature>
										<threshold> 7.0 </threshold>
										<split pos="left">
											<output> -0.001985549693927169 </output>
										</split>
										<split pos="right">
											<feature> 28 </feature>
											<threshold> 326.51953 </threshold>
											<split pos="left">
												<output> 4.033940422232263E-5 </output>
											</split>
											<split pos="right">
												<output> 0.005466820206493139 </output>
											</split>
										</split>
									</split>
									<split pos="right">
										<output> -0.006035090424120426 </output>
									</split>
								</split>
								<split pos="right">
									<output> -0.012528706341981888 </output>
								</split>
							</split>
							<split pos="right">
								<output> 0.08267166465520859 </output>
							</split>
						</split>
						<split pos="right">
							<output> 0.006446484941989183 </output>
						</split>
					</split>
					<split pos="right">
						<output> 0.21139071881771088 </output>
					</split>
				</split>
				<split pos="right">
					<output> -0.028202317655086517 </output>
				</split>
			</split>
			<split pos="right">
				<output> 0.025742756202816963 </output>
			</split>
		</split>
	</tree>
	<tree id="37" weight="0.1">
		<split>
			<feature> 31 </feature>
			<threshold> 162.0 </threshold>
			<split pos="left">
				<feature> 32 </feature>
				<threshold> 1694.8281 </threshold>
				<split pos="left">
					<feature> 34 </feature>
					<threshold> 61.042187 </threshold>
					<split pos="left">
						<feature> 32 </feature>
						<threshold> 339.76562 </threshold>
						<split pos="left">
							<feature> 34 </feature>
							<threshold> 24.510347 </threshold>
							<split pos="left">
								<feature> 33 </feature>
								<threshold> 93.98047 </threshold>
								<split pos="left">
									<feature> 38 </feature>
									<threshold> 0.0 </threshold>
									<split pos="left">
										<output> 6.824848242104053E-4 </output>
									</split>
									<split pos="right">
										<output> 0.019351324066519737 </output>
									</split>
								</split>
								<split pos="right">
									<output> -0.0038003111258149147 </output>
								</split>
							</split>
							<split pos="right">
								<feature> 37 </feature>
								<threshold> 0.1015625 </threshold>
								<split pos="left">
									<feature> 38 </feature>
									<threshold> 0.015625 </threshold>
									<split pos="left">
										<output> 3.541737678460777E-4 </output>
									</split>
									<split pos="right">
										<output> 0.02273739129304886 </output>
									</split>
								</split>
								<split pos="right">
									<output> 0.1352750062942505 </output>
								</split>
							</split>
						</split>
						<split pos="right">
							<output> -0.021834535524249077 </output>
						</split>
					</split>
					<split pos="right">
						<output> 0.028136111795902252 </output>
					</split>
				</split>
				<split pos="right">
					<output> -0.10837557166814804 </output>
				</split>
			</split>
			<split pos="right">
				<output> 0.1310940682888031 </output>
			</split>
		</split>
	</tree>
	<tree id="38" weight="0.1">
		<split>
			<feature> 34 </feature>
			<threshold> 118.18175 </threshold>
			<split pos="left">
				<feature> 28 </feature>
				<threshold> 498.05078 </threshold>
				<split pos="left">
					<feature> 33 </feature>
					<threshold> 6881.5547 </threshold>
					<split pos="left">
						<feature> 15 </feature>
						<threshold> 0.6 </threshold>
						<split pos="left">
							<feature> 1 </feature>
							<threshold> 21.0 </threshold>
							<split pos="left">
								<output> -0.0014371456345543265 </output>
							</split>
							<split pos="right">
								<feature> 37 </feature>
								<threshold> 0.09375 </threshold>
								<split pos="left">
									<feature> 37 </feature>
									<threshold> 0.046875 </threshold>
									<split pos="left">
										<feature> 36 </feature>
										<threshold> 178.30843 </threshold>
										<split pos="left">
											<feature> 38 </feature>
											<threshold> 0.046875 </threshold>
											<split pos="left">
												<output> 0.002025952795520425 </output>
											</split>
											<split pos="right">
												<output> 0.030372435227036476 </output>
											</split>
										</split>
										<split pos="right">
											<output> -0.018286539241671562 </output>
										</split>
									</split>
									<split pos="right">
										<output> 0.059780508279800415 </output>
									</split>
								</split>
								<split pos="right">
									<output> 0.19599835574626923 </output>
								</split>
							</split>
						</split>
						<split pos="right">
							<output> 0.06728111207485199 </output>
						</split>
					</split>
					<split pos="right">
						<output> -0.060044944286346436 </output>
					</split>
				</split>
				<split pos="right">
					<output> 0.050845034420490265 </output>
				</split>
			</split>
			<split pos="right">
				<output> 0.127350315451622 </output>
			</split>
		</split>
	</tree>
	<tree id="39" weight="0.1">
		<split>
			<feature> 30 </feature>
			<threshold> 146.62799 </threshold>
			<split pos="left">
				<feature> 28 </feature>
				<threshold> 498.05078 </threshold>
				<split pos="left">
					<feature> 33 </feature>
					<threshold> 4185.121 </threshold>
					<split pos="left">
						<feature> 15 </feature>
						<threshold> 0.6 </threshold>
						<split pos="left">
							<feature> 33 </feature>
							<threshold> 279.9414 </threshold>
							<split pos="left">
								<feature> 38 </feature>
								<threshold> 0.0 </threshold>
								<split pos="left">
									<feature> 30 </feature>
									<threshold> 56.62625 </threshold>
									<split pos="left">
										<feature> 34 </feature>
										<threshold> 37.624332 </threshold>
										<split pos="left">
											<feature> 28 </feature>
											<threshold> 492.20312 </threshold>
											<split pos="left">
												<output> 6.601503700949252E-4 </output>
											</split>
											<split pos="right">
												<output> -0.0253433957695961 </output>
											</split>
										</split>
										<split pos="right">
											<output> 0.013402747921645641 </output>
										</split>
									</split>
									<split pos="right">
										<output> -0.010015948675572872 </output>
									</split>
								</split>
								<split pos="right">
									<output> 0.014591721817851067 </output>
								</split>
							</split>
							<split pos="right">
								<output> -0.004637526348233223 </output>
							</split>
						</split>
						<split pos="right">
							<output> 0.060179512947797775 </output>
						</split>
					</split>
					<split pos="right">
						<output> -0.033764228224754333 </output>
					</split>
				</split>
				<split pos="right">
					<output> 0.04782407730817795 </output>
				</split>
			</split>
			<split pos="right">
				<output> 0.06467295438051224 </output>
			</split>
		</split>
	</tree>
	<tree id="40" weight="0.1">
		<split>
			<feature> 37 </feature>
			<threshold> 0.203125 </threshold>
			<split pos="left">
				<feature> 32 </feature>
				<threshold> 1417.6562 </threshold>
				<split pos="left">
					<feature> 31 </feature>
					<threshold> 110.0 </threshold>
					<split pos="left">
						<feature> 32 </feature>
						<threshold> 216.57812 </threshold>
						<split pos="left">
							<feature> 34 </feature>
							<threshold> 24.510347 </threshold>
							<split pos="left">
								<feature> 28 </feature>
								<threshold> 494.15234 </threshold>
								<split pos="left">
									<feature> 33 </feature>
									<threshold> 93.98047 </threshold>
									<split pos="left">
										<output> 0.001316713634878397 </output>
									</split>
									<split pos="right">
										<output> -0.003164703492075205 </output>
									</split>
								</split>
								<split pos="right">
									<output> -0.04540050029754639 </output>
								</split>
							</split>
							<split pos="right">
								<feature> 38 </feature>
								<threshold> 0.03515625 </threshold>
								<split pos="left">
									<feature> 36 </feature>
									<threshold> 116.99396 </threshold>
									<split pos="left">
										<output> 0.0063401139341294765 </output>
									</split>
									<split pos="right">
										<output> -0.019374974071979523 </output>
									</split>
								</split>
								<split pos="right">
									<output> 0.03812377527356148 </output>
								</split>
							</split>
						</split>
						<split pos="right">
							<output> -0.01140536181628704 </output>
						</split>
					</split>
					<split pos="right">
						<output> 0.0513710081577301 </output>
					</split>
				</split>
				<split pos="right">
					<output> -0.0958326905965805 </output>
				</split>
			</split>
			<split pos="right">
				<output> 0.047043729573488235 </output>
			</split>
		</split>
	</tree>
	<tree id="41" weight="0.1">
		<split>
			<feature> 31 </feature>
			<threshold> 154.0 </threshold>
			<split pos="left">
				<feature> 32 </feature>
				<threshold> 1171.2812 </threshold>
				<split pos="left">
					<feature> 34 </feature>
					<threshold> 47.92819 </threshold>
					<split pos="left">
						<feature> 32 </feature>
						<threshold> 124.1875 </threshold>
						<split pos="left">
							<feature> 37 </feature>
							<threshold> 0.0 </threshold>
							<split pos="left">
								<feature> 28 </feature>
								<threshold> 258.29688 </threshold>
								<split pos="left">
									<feature> 30 </feature>
									<threshold> 47.80255 </threshold>
									<split pos="left">
										<output> -5.237910081632435E-4 </output>
									</split>
									<split pos="right">
										<output> -0.008603817783296108 </output>
									</split>
								</split>
								<split pos="right">
									<feature> 1 </feature>
									<threshold> 18.0 </threshold>
									<split pos="left">
										<output> -2.593676035758108E-4 </output>
									</split>
									<split pos="right">
										<feature> 38 </feature>
										<threshold> 0.0 </threshold>
										<split pos="left">
											<output> 0.004489488899707794 </output>
										</split>
										<split pos="right">
											<output> 0.01959865167737007 </output>
										</split>
									</split>
								</split>
							</split>
							<split pos="right">
								<output> 0.01481696031987667 </output>
							</split>
						</split>
						<split pos="right">
							<output> -0.008222554810345173 </output>
						</split>
					</split>
					<split pos="right">
						<output> 0.016299018636345863 </output>
					</split>
				</split>
				<split pos="right">
					<output> -0.05896653234958649 </output>
				</split>
			</split>
			<split pos="right">
				<output> 0.09184101969003677 </output>
			</split>
		</split>
	</tree>
	<tree id="42" weight="0.1">
		<split>
			<feature> 34 </feature>
			<threshold> 119.11846 </threshold>
			<split pos="left">
				<feature> 37 </feature>
				<threshold> 0.25 </threshold>
				<split pos="left">
					<feature> 32 </feature>
					<threshold> 986.5 </threshold>
					<split pos="left">
						<feature> 31 </feature>
						<threshold> 91.0 </threshold>
						<split pos="left">
							<feature> 30 </feature>
							<threshold> 236.62973 </threshold>
							<split pos="left">
								<feature> 1 </feature>
								<threshold> 37.0 </threshold>
								<split pos="left">
									<feature> 37 </feature>
									<threshold> 0.03125 </threshold>
									<split pos="left">
										<feature> 13 </feature>
										<threshold> 0.857143 </threshold>
										<split pos="left">
											<feature> 35 </feature>
											<threshold> 201.08719 </threshold>
											<split pos="left">
												<output> -1.1582380830077454E-4 </output>
											</split>
											<split pos="right">
												<output> -0.07678715139627457 </output>
											</split>
										</split>
										<split pos="right">
											<output> 0.15964242815971375 </output>
										</split>
									</split>
									<split pos="right">
										<output> -0.016049755737185478 </output>
									</split>
								</split>
								<split pos="right">
									<output> 0.004942599684000015 </output>
								</split>
							</split>
							<split pos="right">
								<output> 0.15916994214057922 </output>
							</split>
						</split>
						<split pos="right">
							<output> 0.030955249443650246 </output>
						</split>
					</split>
					<split pos="right">
						<output> -0.05957050994038582 </output>
					</split>
				</split>
				<split pos="right">
					<output> 0.049165066331624985 </output>
				</split>
			</split>
			<split pos="right">
				<output> 0.10952483862638474 </output>
			</split>
		</split>
	</tree>
	<tree id="43" weight="0.1">
		<split>
			<feature> 30 </feature>
			<threshold> 123.68637 </threshold>
			<split pos="left">
				<feature> 28 </feature>
				<threshold> 496.10156 </threshold>
				<split pos="left">
					<feature> 33 </feature>
					<threshold> 837.8242 </threshold>
					<split pos="left">
						<feature> 28 </feature>
						<threshold> 285.58594 </threshold>
						<split pos="left">
							<feature> 37 </feature>
							<threshold> 0.01171875 </threshold>
							<split pos="left">
								<output> -6.417143740691245E-4 </output>
							</split>
							<split pos="right">
								<output> -0.012803953140974045 </output>
							</split>
						</split>
						<split pos="right">
							<feature> 38 </feature>
							<threshold> 0.0 </threshold>
							<split pos="left">
								<feature> 36 </feature>
								<threshold> 86.3367 </threshold>
								<split pos="left">
									<feature> 1 </feature>
									<threshold> 9.0 </threshold>
									<split pos="left">
										<output> -0.0016665799776092172 </output>
									</split>
									<split pos="right">
										<feature> 37 </feature>
										<threshold> 0.234375 </threshold>
										<split pos="left">
											<output> 0.004416503943502903 </output>
										</split>
										<split pos="right">
											<output> 0.33296841382980347 </output>
										</split>
									</split>
								</split>
								<split pos="right">
									<output> -0.011970572173595428 </output>
								</split>
							</split>
							<split pos="right">
								<output> 0.017415355890989304 </output>
							</split>
						</split>
					</split>
					<split pos="right">
						<output> -0.011169752106070518 </output>
					</split>
				</split>
				<split pos="right">
					<output> 0.027448924258351326 </output>
				</split>
			</split>
			<split pos="right">
				<output> 0.041325643658638 </output>
			</split>
		</split>
	</tree>
	<tree id="44" weight="0.1">
		<split>
			<feature> 31 </feature>
			<threshold> 178.0 </threshold>
			<split pos="left">
				<feature> 32 </feature>
				<threshold> 2002.7969 </threshold>
				<split pos="left">
					<feature> 38 </feature>
					<threshold> 0.5 </threshold>
					<split pos="left">
						<feature> 33 </feature>
						<threshold> 3441.2773 </threshold>
						<split pos="left">
							<feature> 31 </feature>
							<threshold> 104.0 </threshold>
							<split pos="left">
								<feature> 33 </feature>
								<threshold> 186.96094 </threshold>
								<split pos="left">
									<feature> 38 </feature>
									<threshold> 0.0 </threshold>
									<split pos="left">
										<feature> 36 </feature>
										<threshold> 86.3367 </threshold>
										<split pos="left">
											<feature> 37 </feature>
											<threshold> 0.5 </threshold>
											<split pos="left">
												<output> 6.020868313498795E-4 </output>
											</split>
											<split pos="right">
												<output> 0.3038313686847687 </output>
											</split>
										</split>
										<split pos="right">
											<output> -0.017426541075110435 </output>
										</split>
									</split>
									<split pos="right">
										<output> 0.015298543497920036 </output>
									</split>
								</split>
								<split pos="right">
									<output> -0.003506581299006939 </output>
								</split>
							</split>
							<split pos="right">
								<output> 0.03700519725680351 </output>
							</split>
						</split>
						<split pos="right">
							<output> -0.03119564615190029 </output>
						</split>
					</split>
					<split pos="right">
						<output> 0.03163011744618416 </output>
					</split>
				</split>
				<split pos="right">
					<output> -0.10187742114067078 </output>
				</split>
			</split>
			<split pos="right">
				<output> 0.15054132044315338 </output>
			</split>
		</split>
	</tree>
	<tree id="45" weight="0.1">
		<split>
			<feature> 37 </feature>
			<threshold> 0.203125 </threshold>
			<split pos="left">
				<feature> 32 </feature>
				<threshold> 1510.0469 </threshold>
				<split pos="left">
					<feature> 31 </feature>
					<threshold> 126.0 </threshold>
					<split pos="left">
						<feature> 30 </feature>
						<threshold> 286.04245 </threshold>
						<split pos="left">
							<feature> 1 </feature>
							<threshold> 37.0 </threshold>
							<split pos="left">
								<feature> 37 </feature>
								<threshold> 0.03125 </threshold>
								<split pos="left">
									<feature> 35 </feature>
									<threshold> 222.72392 </threshold>
									<split pos="left">
										<feature> 13 </feature>
										<threshold> 0.857143 </threshold>
										<split pos="left">
											<feature> 1 </feature>
											<threshold> 5.0 </threshold>
											<split pos="left">
												<output> -0.0029986726585775614 </output>
											</split>
											<split pos="right">
												<output> 5.631492240354419E-4 </output>
											</split>
										</split>
										<split pos="right">
											<output> 0.1482735127210617 </output>
										</split>
									</split>
									<split pos="right">
										<output> -0.10037846863269806 </output>
									</split>
								</split>
								<split pos="right">
									<output> -0.015827171504497528 </output>
								</split>
							</split>
							<split pos="right">
								<output> 0.00449209613725543 </output>
							</split>
						</split>
						<split pos="right">
							<output> 0.23613400757312775 </output>
						</split>
					</split>
					<split pos="right">
						<output> 0.04935915023088455 </output>
					</split>
				</split>
				<split pos="right">
					<output> -0.08262510597705841 </output>
				</split>
			</split>
			<split pos="right">
				<output> 0.03788086771965027 </output>
			</split>
		</split>
	</tree>
	<tree id="46" weight="0.1">
		<split>
			<feature> 30 </feature>
			<threshold> 166.04013 </threshold>
			<split pos="left">
				<feature> 31 </feature>
				<threshold> 167.0 </threshold>
				<split pos="left">
					<feature> 33 </feature>
					<threshold> 10972.695 </threshold>
					<split pos="left">
						<feature> 28 </feature>
						<threshold> 455.16797 </threshold>
						<split pos="left">
							<feature> 34 </feature>
							<threshold> 64.78904 </threshold>
							<split pos="left">
								<feature> 32 </feature>
								<threshold> 62.59375 </threshold>
								<split pos="left">
									<feature> 37 </feature>
									<threshold> 0.0 </threshold>
									<split pos="left">
										<feature> 28 </feature>
										<threshold> 201.76953 </threshold>
										<split pos="left">
											<output> -0.00143382977694273 </output>
										</split>
										<split pos="right">
											<feature> 1 </feature>
											<threshold> 25.0 </threshold>
											<split pos="left">
												<output> 5.81214320845902E-4 </output>
											</split>
											<split pos="right">
												<output> 0.005713757127523422 </output>
											</split>
										</split>
									</split>
									<split pos="right">
										<output> 0.018400996923446655 </output>
									</split>
								</split>
								<split pos="right">
									<output> -0.004568134434521198 </output>
								</split>
							</split>
							<split pos="right">
								<output> -0.046927500516176224 </output>
							</split>
						</split>
						<split pos="right">
							<output> 0.007071735803037882 </output>
						</split>
					</split>
					<split pos="right">
						<output> -0.09464119374752045 </output>
					</split>
				</split>
				<split pos="right">
					<output> 0.09175731241703033 </output>
				</split>
			</split>
			<split pos="right">
				<output> 0.06367136538028717 </output>
			</split>
		</split>
	</tree>
	<tree id="47" weight="0.1">
		<split>
			<feature> 15 </feature>
			<threshold> 0.6 </threshold>
			<split pos="left">
				<feature> 6 </feature>
				<threshold> 612.27734 </threshold>
				<split pos="left">
					<output> 0.006362241227179766 </output>
				</split>
				<split pos="right">
					<feature> 4 </feature>
					<threshold> 7448.289 </threshold>
					<split pos="left">
						<feature> 33 </feature>
						<threshold> 10972.695 </threshold>
						<split pos="left">
							<feature> 34 </feature>
							<threshold> 110.688034 </threshold>
							<split pos="left">
								<feature> 6 </feature>
								<threshold> 7947.6055 </threshold>
								<split pos="left">
									<feature> 37 </feature>
									<threshold> 0.0 </threshold>
									<split pos="left">
										<feature> 30 </feature>
										<threshold> 72.50891 </threshold>
										<split pos="left">
											<output> -3.68316046660766E-4 </output>
										</split>
										<split pos="right">
											<output> -0.028509676456451416 </output>
										</split>
									</split>
									<split pos="right">
										<output> 0.02134155109524727 </output>
									</split>
								</split>
								<split pos="right">
									<output> -0.005170129239559174 </output>
								</split>
							</split>
							<split pos="right">
								<output> 0.08287369459867477 </output>
							</split>
						</split>
						<split pos="right">
							<output> -0.10960305482149124 </output>
						</split>
					</split>
					<split pos="right">
						<feature> 34 </feature>
						<threshold> 34.81419 </threshold>
						<split pos="left">
							<output> 0.0015074696857482195 </output>
						</split>
						<split pos="right">
							<output> 0.019053881987929344 </output>
						</split>
					</split>
				</split>
			</split>
			<split pos="right">
				<output> 0.04438118264079094 </output>
			</split>
		</split>
	</tree>
	<tree id="48" weight="0.1">
		<split>
			<feature> 37 </feature>
			<threshold> 0.125 </threshold>
			<split pos="left">
				<feature> 32 </feature>
				<threshold> 894.1094 </threshold>
				<split pos="left">
					<feature> 31 </feature>
					<threshold> 108.0 </threshold>
					<split pos="left">
						<feature> 33 </feature>
						<threshold> 465.90234 </threshold>
						<split pos="left">
							<feature> 38 </feature>
							<threshold> 0.01171875 </threshold>
							<split pos="left">
								<feature> 30 </feature>
								<threshold> 65.44995 </threshold>
								<split pos="left">
									<feature> 13 </feature>
									<threshold> 0.714286 </threshold>
									<split pos="left">
										<feature> 8 </feature>
										<threshold> 1.0 </threshold>
										<split pos="left">
											<output> 0.003606226062402129 </output>
										</split>
										<split pos="right">
											<feature> 28 </feature>
											<threshold> 492.20312 </threshold>
											<split pos="left">
												<output> -1.482636434957385E-4 </output>
											</split>
											<split pos="right">
												<output> -0.014946112409234047 </output>
											</split>
										</split>
									</split>
									<split pos="right">
										<output> 0.11984206736087799 </output>
									</split>
								</split>
								<split pos="right">
									<output> -0.013532886281609535 </output>
								</split>
							</split>
							<split pos="right">
								<output> 0.008488137274980545 </output>
							</split>
						</split>
						<split pos="right">
							<output> -0.0060307481326162815 </output>
						</split>
					</split>
					<split pos="right">
						<output> 0.03057246282696724 </output>
					</split>
				</split>
				<split pos="right">
					<output> -0.05568249151110649 </output>
				</split>
			</split>
			<split pos="right">
				<output> 0.02192060835659504 </output>
			</split>
		</split>
	</tree>
	<tree id="49" weight="0.1">
		<split>
			<feature> 30 </feature>
			<threshold> 114.86267 </threshold>
			<split pos="left">
				<feature> 33 </feature>
				<threshold> 1860.6094 </threshold>
				<split pos="left">
					<feature> 30 </feature>
					<threshold> 16.037231 </threshold>
					<split pos="left">
						<output> -0.002560598077252507 </output>
					</split>
					<split pos="right">
						<feature> 37 </feature>
						<threshold> 0.203125 </threshold>
						<split pos="left">
							<feature> 38 </feature>
							<threshold> 0.1015625 </threshold>
							<split pos="left">
								<feature> 36 </feature>
								<threshold> 147.6512 </threshold>
								<split pos="left">
									<feature> 28 </feature>
									<threshold> 373.30078 </threshold>
									<split pos="left">
										<feature> 36 </feature>
										<threshold> 40.35082 </threshold>
										<split pos="left">
											<output> 0.002233329927548766 </output>
										</split>
										<split pos="right">
											<output> -0.0028063126374036074 </output>
										</split>
									</split>
									<split pos="right">
										<feature> 38 </feature>
										<threshold> 0.0 </threshold>
										<split pos="left">
											<output> 0.0026295455172657967 </output>
										</split>
										<split pos="right">
											<output> 0.02728963829576969 </output>
										</split>
									</split>
								</split>
								<split pos="right">
									<output> -0.01183999516069889 </output>
								</split>
							</split>
							<split pos="right">
								<output> 0.02099979855120182 </output>
							</split>
						</split>
						<split pos="right">
							<output> 0.12139683961868286 </output>
						</split>
					</split>
				</split>
				<split pos="right">
					<output> -0.014396042563021183 </output>
				</split>
			</split>
			<split pos="right">
				<output> 0.03002801537513733 </output>
			</split>
		</split>
	</tree>
	<tree id="50" weight="0.1">
		<split>
			<feature> 38 </feature>
			<threshold> 0.5 </threshold>
			<split pos="left">
				<feature> 33 </feature>
				<threshold> 3627.2383 </threshold>
				<split pos="left">
					<feature> 31 </feature>
					<threshold> 88.0 </threshold>
					<split pos="left">
						<feature> 33 </feature>
						<threshold> 186.96094 </threshold>
						<split pos="left">
							<feature> 38 </feature>
							<threshold> 0.0 </threshold>
							<split pos="left">
								<feature> 36 </feature>
								<threshold> 71.00807 </threshold>
								<split pos="left">
									<feature> 34 </feature>
									<threshold> 24.510347 </threshold>
									<split pos="left">
										<output> 2.0062297699041665E-4 </output>
									</split>
									<split pos="right">
										<output> 0.005215317942202091 </output>
									</split>
								</split>
								<split pos="right">
									<output> -0.009434741921722889 </output>
								</split>
							</split>
							<split pos="right">
								<output> 0.011683656834065914 </output>
							</split>
						</split>
						<split pos="right">
							<feature> 6 </feature>
							<threshold> 1223.5547 </threshold>
							<split pos="left">
								<output> 0.003546428866684437 </output>
							</split>
							<split pos="right">
								<feature> 10 </feature>
								<threshold> 54808.562 </threshold>
								<split pos="left">
									<output> -0.007207518443465233 </output>
								</split>
								<split pos="right">
									<output> -3.897815622622147E-5 </output>
								</split>
							</split>
						</split>
					</split>
					<split pos="right">
						<output> 0.021770965307950974 </output>
					</split>
				</split>
				<split pos="right">
					<output> -0.02987111732363701 </output>
				</split>
			</split>
			<split pos="right">
				<output> 0.026120083406567574 </output>
			</split>
		</split>
	</tree>
	<tree id="51" weight="0.1">
		<split>
			<feature> 30 </feature>
			<threshold> 192.51123 </threshold>
			<split pos="left">
				<feature> 31 </feature>
				<threshold> 180.0 </threshold>
				<split pos="left">
					<feature> 32 </feature>
					<threshold> 2156.7812 </threshold>
					<split pos="left">
						<feature> 1 </feature>
						<threshold> 17.0 </threshold>
						<split pos="left">
							<output> -0.0017443452961742878 </output>
						</split>
						<split pos="right">
							<feature> 37 </feature>
							<threshold> 0.11328125 </threshold>
							<split pos="left">
								<feature> 37 </feature>
								<threshold> 0.05859375 </threshold>
								<split pos="left">
									<feature> 35 </feature>
									<threshold> 205.41454 </threshold>
									<split pos="left">
										<feature> 38 </feature>
										<threshold> 0.05859375 </threshold>
										<split pos="left">
											<feature> 36 </feature>
											<threshold> 170.64412 </threshold>
											<split pos="left">
												<output> 8.512428030371666E-4 </output>
											</split>
											<split pos="right">
												<output> -0.021580835804343224 </output>
											</split>
										</split>
										<split pos="right">
											<output> 0.012225874699652195 </output>
										</split>
									</split>
									<split pos="right">
										<output> -0.06750208884477615 </output>
									</split>
								</split>
								<split pos="right">
									<output> 0.05488496273756027 </output>
								</split>
							</split>
							<split pos="right">
								<output> 0.1877075880765915 </output>
							</split>
						</split>
					</split>
					<split pos="right">
						<output> -0.09849218279123306 </output>
					</split>
				</split>
				<split pos="right">
					<output> 0.12322580069303513 </output>
				</split>
			</split>
			<split pos="right">
				<output> 0.07733876258134842 </output>
			</split>
		</split>
	</tree>
	<tree id="52" weight="0.1">
		<split>
			<feature> 34 </feature>
			<threshold> 61.042187 </threshold>
			<split pos="left">
				<feature> 32 </feature>
				<threshold> 524.5469 </threshold>
				<split pos="left">
					<feature> 1 </feature>
					<threshold> 40.0 </threshold>
					<split pos="left">
						<feature> 37 </feature>
						<threshold> 0.0 </threshold>
						<split pos="left">
							<feature> 30 </feature>
							<threshold> 40.74359 </threshold>
							<split pos="left">
								<feature> 34 </feature>
								<threshold> 43.244617 </threshold>
								<split pos="left">
									<feature> 28 </feature>
									<threshold> 492.20312 </threshold>
									<split pos="left">
										<feature> 31 </feature>
										<threshold> 4.0 </threshold>
										<split pos="left">
											<output> -0.0014658876461908221 </output>
										</split>
										<split pos="right">
											<feature> 13 </feature>
											<threshold> 0.714286 </threshold>
											<split pos="left">
												<output> 0.001165153575129807 </output>
											</split>
											<split pos="right">
												<output> 0.13253839313983917 </output>
											</split>
										</split>
									</split>
									<split pos="right">
										<output> -0.021311016753315926 </output>
									</split>
								</split>
								<split pos="right">
									<output> 0.015778960660099983 </output>
								</split>
							</split>
							<split pos="right">
								<output> -0.005205614026635885 </output>
							</split>
						</split>
						<split pos="right">
							<output> -0.014007429592311382 </output>
						</split>
					</split>
					<split pos="right">
						<output> 0.0045369877479970455 </output>
					</split>
				</split>
				<split pos="right">
					<output> -0.028449002653360367 </output>
				</split>
			</split>
			<split pos="right">
				<output> 0.01604759506881237 </output>
			</split>
		</split>
	</tree>
	<tree id="53" weight="0.1">
		<split>
			<feature> 37 </feature>
			<threshold> 0.3359375 </threshold>
			<split pos="left">
				<feature> 32 </feature>
				<threshold> 2372.3594 </threshold>
				<split pos="left">
					<feature> 30 </feature>
					<threshold> 291.33667 </threshold>
					<split pos="left">
						<feature> 34 </feature>
						<threshold> 128.4856 </threshold>
						<split pos="left">
							<feature> 29 </feature>
							<threshold> 20.0 </threshold>
							<split pos="left">
								<output> -0.0023352522403001785 </output>
							</split>
							<split pos="right">
								<feature> 28 </feature>
								<threshold> 445.42188 </threshold>
								<split pos="left">
									<feature> 34 </feature>
									<threshold> 61.9789 </threshold>
									<split pos="left">
										<feature> 28 </feature>
										<threshold> 192.02344 </threshold>
										<split pos="left">
											<output> -0.001518402830697596 </output>
										</split>
										<split pos="right">
